<?xml version="1.0"?>
<opencv_storage>
<stage1>
  <maxWeakCount>5</maxWeakCount>
  <stageThreshold>-1.8611270189285278e+00</stageThreshold>
  <weakClassifiers>
    <_>
      <internalNodes>
        0 -1 9152 -2.7034679055213928e-01</internalNodes>
      <leafValues>
        9.6774190664291382e-02 -9.0322577953338623e-01</leafValues></_>
    <_>
      <internalNodes>
        0 -1 106998 -1.8108007311820984e-01</internalNodes>
      <leafValues>
        5.8048641681671143e-01 -6.7491656541824341e-01</leafValues></_>
    <_>
      <internalNodes>
        0 -1 594 -6.2556505203247070e-02</internalNodes>
      <leafValues>
        2.9498177766799927e-01 -9.1834259033203125e-01</leafValues></_>
    <_>
      <internalNodes>
        0 -1 162146 -4.3822918087244034e-04</internalNodes>
      <leafValues>
        -8.4954565763473511e-01 2.6042890548706055e-01</leafValues></_>
    <_>
      <internalNodes>
        0 -1 24718 2.3805633187294006e-02</internalNodes>
      <leafValues>
        -8.3839535713195801e-01 3.8944116234779358e-01</leafValues></_></weakClassifiers></stage1>
</opencv_storage>
