<?xml version="1.0"?>
<opencv_storage>
<stage4>
  <maxWeakCount>5</maxWeakCount>
  <stageThreshold>-1.7446556091308594e+00</stageThreshold>
  <weakClassifiers>
    <_>
      <internalNodes>
        0 -1 75321 -3.7515652179718018e-01</internalNodes>
      <leafValues>
        4.7368422150611877e-01 -8.3673471212387085e-01</leafValues></_>
    <_>
      <internalNodes>
        0 -1 99138 -3.6344823241233826e-01</internalNodes>
      <leafValues>
        5.3322911262512207e-01 -6.5060490369796753e-01</leafValues></_>
    <_>
      <internalNodes>
        0 -1 148297 -4.0830121724866331e-04</internalNodes>
      <leafValues>
        -8.2838529348373413e-01 2.3305508494377136e-01</leafValues></_>
    <_>
      <internalNodes>
        0 -1 161633 4.5598787255585194e-03</internalNodes>
      <leafValues>
        1.7605830729007721e-01 -1.</leafValues></_>
    <_>
      <internalNodes>
        0 -1 59463 6.4974397420883179e-02</internalNodes>
      <leafValues>
        -5.4714387655258179e-01 3.9501097798347473e-01</leafValues></_></weakClassifiers></stage4>
</opencv_storage>
