<?xml version="1.0"?>
<opencv_storage>
<stage0>
  <maxWeakCount>11</maxWeakCount>
  <stageThreshold>-1.6945912837982178e+00</stageThreshold>
  <weakClassifiers>
    <_>
      <internalNodes>
        0 -1 111430 1.8377469386905432e-03</internalNodes>
      <leafValues>
        -7.3531991243362427e-01 6.0000002384185791e-01</leafValues></_>
    <_>
      <internalNodes>
        0 -1 35 1.9714214431587607e-04</internalNodes>
      <leafValues>
        -5.8735752105712891e-01 1.7313273251056671e-01</leafValues></_>
    <_>
      <internalNodes>
        0 -1 56792 1.0886402800679207e-02</internalNodes>
      <leafValues>
        -2.1474117040634155e-01 6.8532061576843262e-01</leafValues></_>
    <_>
      <internalNodes>
        0 -1 25793 -6.5344846807420254e-03</internalNodes>
      <leafValues>
        -9.4550663232803345e-01 1.4642281830310822e-01</leafValues></_>
    <_>
      <internalNodes>
        0 -1 155230 1.2868319172412157e-03</internalNodes>
      <leafValues>
        1.4437571167945862e-01 -8.6789166927337646e-01</leafValues></_>
    <_>
      <internalNodes>
        0 -1 126155 -2.5058528408408165e-03</internalNodes>
      <leafValues>
        4.3648090958595276e-01 -2.7546262741088867e-01</leafValues></_>
    <_>
      <internalNodes>
        0 -1 10019 2.5103008374571800e-03</internalNodes>
      <leafValues>
        1.4630952477455139e-01 -9.3177968263626099e-01</leafValues></_>
    <_>
      <internalNodes>
        0 -1 8969 -4.1284933686256409e-03</internalNodes>
      <leafValues>
        3.8038358092308044e-01 -3.3296185731887817e-01</leafValues></_>
    <_>
      <internalNodes>
        0 -1 8816 1.5286952257156372e-03</internalNodes>
      <leafValues>
        1.4236128330230713e-01 -8.3728021383285522e-01</leafValues></_>
    <_>
      <internalNodes>
        0 -1 13595 -1.8444329500198364e-02</internalNodes>
      <leafValues>
        5.1326042413711548e-01 -2.9567229747772217e-01</leafValues></_>
    <_>
      <internalNodes>
        0 -1 121337 1.3203734997659922e-03</internalNodes>
      <leafValues>
        1.6745473444461823e-01 -7.0304220914840698e-01</leafValues></_></weakClassifiers></stage0>
</opencv_storage>
