<?xml version="1.0"?>
<opencv_storage>
<stage8>
  <maxWeakCount>14</maxWeakCount>
  <stageThreshold>-1.5652970075607300e+00</stageThreshold>
  <weakClassifiers>
    <_>
      <internalNodes>
        0 -1 133117 -2.0030720625072718e-03</internalNodes>
      <leafValues>
        1.8367347121238708e-01 -7.1628719568252563e-01</leafValues></_>
    <_>
      <internalNodes>
        0 -1 13375 1.4738994650542736e-03</internalNodes>
      <leafValues>
        -5.7414863258600235e-02 -7.8642570972442627e-01</leafValues></_>
    <_>
      <internalNodes>
        0 -1 9444 1.8345811404287815e-03</internalNodes>
      <leafValues>
        5.5796742439270020e-02 -9.1348737478256226e-01</leafValues></_>
    <_>
      <internalNodes>
        0 -1 63846 5.4243383929133415e-03</internalNodes>
      <leafValues>
        -2.7776163816452026e-01 2.8022652864456177e-01</leafValues></_>
    <_>
      <internalNodes>
        0 -1 162307 1.4640635345131159e-03</internalNodes>
      <leafValues>
        1.0480453819036484e-01 -8.1751227378845215e-01</leafValues></_>
    <_>
      <internalNodes>
        0 -1 154457 7.5220281723886728e-04</internalNodes>
      <leafValues>
        -2.8366419672966003e-01 2.3872217535972595e-01</leafValues></_>
    <_>
      <internalNodes>
        0 -1 56188 8.8028602476697415e-05</internalNodes>
      <leafValues>
        -2.6696121692657471e-01 2.6405590772628784e-01</leafValues></_>
    <_>
      <internalNodes>
        0 -1 132563 9.5467781648039818e-04</internalNodes>
      <leafValues>
        -2.4434056878089905e-01 2.9512912034988403e-01</leafValues></_>
    <_>
      <internalNodes>
        0 -1 156032 -5.8843439910560846e-04</internalNodes>
      <leafValues>
        3.2104036211967468e-01 -2.2699464857578278e-01</leafValues></_>
    <_>
      <internalNodes>
        0 -1 49263 -1.1045554652810097e-02</internalNodes>
      <leafValues>
        -7.6965111494064331e-01 1.0245760530233383e-01</leafValues></_>
    <_>
      <internalNodes>
        0 -1 14426 -6.0856866184622049e-04</internalNodes>
      <leafValues>
        -6.6504919528961182e-01 8.5859254002571106e-02</leafValues></_>
    <_>
      <internalNodes>
        0 -1 1136 -5.6311592925339937e-04</internalNodes>
      <leafValues>
        -4.9769091606140137e-01 1.5293216705322266e-01</leafValues></_>
    <_>
      <internalNodes>
        0 -1 162087 -8.3494669524952769e-05</internalNodes>
      <leafValues>
        2.8943514823913574e-01 -2.4894766509532928e-01</leafValues></_>
    <_>
      <internalNodes>
        0 -1 154251 2.0896638743579388e-03</internalNodes>
      <leafValues>
        -1.5600830316543579e-01 4.7385028004646301e-01</leafValues></_></weakClassifiers></stage8>
</opencv_storage>
