<?xml version="1.0"?>
<opencv_storage>
<stage7>
  <maxWeakCount>14</maxWeakCount>
  <stageThreshold>-1.5543216466903687e+00</stageThreshold>
  <weakClassifiers>
    <_>
      <internalNodes>
        0 -1 34561 2.9731724411249161e-02</internalNodes>
      <leafValues>
        -7.0890408754348755e-01 8.2608693838119507e-01</leafValues></_>
    <_>
      <internalNodes>
        0 -1 14641 1.0019724722951651e-03</internalNodes>
      <leafValues>
        -4.4721001386642456e-01 1.8708012998104095e-01</leafValues></_>
    <_>
      <internalNodes>
        0 -1 58805 3.3780820667743683e-03</internalNodes>
      <leafValues>
        -2.0526836812496185e-01 4.3665665388107300e-01</leafValues></_>
    <_>
      <internalNodes>
        0 -1 11050 -1.1817599879577756e-03</internalNodes>
      <leafValues>
        -6.7321348190307617e-01 1.2881660461425781e-01</leafValues></_>
    <_>
      <internalNodes>
        0 -1 86592 4.3648867867887020e-03</internalNodes>
      <leafValues>
        -2.9695287346839905e-01 3.1211712956428528e-01</leafValues></_>
    <_>
      <internalNodes>
        0 -1 153418 -4.3804980814456940e-03</internalNodes>
      <leafValues>
        3.6532944440841675e-01 -2.5192782282829285e-01</leafValues></_>
    <_>
      <internalNodes>
        0 -1 162165 -8.0306222662329674e-03</internalNodes>
      <leafValues>
        -8.9987289905548096e-01 9.6379891037940979e-02</leafValues></_>
    <_>
      <internalNodes>
        0 -1 10047 3.1871028477326035e-04</internalNodes>
      <leafValues>
        -3.0577686429023743e-01 2.8079664707183838e-01</leafValues></_>
    <_>
      <internalNodes>
        0 -1 125852 2.6576032396405935e-03</internalNodes>
      <leafValues>
        -3.0366694927215576e-01 2.8929290175437927e-01</leafValues></_>
    <_>
      <internalNodes>
        0 -1 11972 -2.0201592706143856e-03</internalNodes>
      <leafValues>
        3.2349953055381775e-01 -2.7150443196296692e-01</leafValues></_>
    <_>
      <internalNodes>
        0 -1 25786 8.1211706856265664e-05</internalNodes>
      <leafValues>
        -2.5916188955307007e-01 3.3488646149635315e-01</leafValues></_>
    <_>
      <internalNodes>
        0 -1 105091 9.1850501485168934e-04</internalNodes>
      <leafValues>
        -2.5275385379791260e-01 3.3127394318580627e-01</leafValues></_>
    <_>
      <internalNodes>
        0 -1 9454 5.1625776104629040e-03</internalNodes>
      <leafValues>
        9.9263384938240051e-02 -9.1431754827499390e-01</leafValues></_>
    <_>
      <internalNodes>
        0 -1 112970 2.8117354959249496e-03</internalNodes>
      <leafValues>
        -2.0399251580238342e-01 4.7007864713668823e-01</leafValues></_></weakClassifiers></stage7>
</opencv_storage>
