<?xml version="1.0"?>
<opencv_storage>
<stage10>
  <maxWeakCount>8</maxWeakCount>
  <stageThreshold>-1.6274135112762451e+00</stageThreshold>
  <weakClassifiers>
    <_>
      <internalNodes>
        0 -1 42722 -2.0613664388656616e-01</internalNodes>
      <leafValues>
        3.3333334326744080e-01 -7.5513851642608643e-01</leafValues></_>
    <_>
      <internalNodes>
        0 -1 39 -7.1212034672498703e-03</internalNodes>
      <leafValues>
        5.4034072160720825e-01 -3.7024483084678650e-01</leafValues></_>
    <_>
      <internalNodes>
        0 -1 50284 -5.4642722010612488e-02</internalNodes>
      <leafValues>
        3.3657473325729370e-01 -4.2957067489624023e-01</leafValues></_>
    <_>
      <internalNodes>
        0 -1 155435 -6.8439825554378331e-05</internalNodes>
      <leafValues>
        -6.5986406803131104e-01 2.1330209076404572e-01</leafValues></_>
    <_>
      <internalNodes>
        0 -1 146097 1.6817975789308548e-02</internalNodes>
      <leafValues>
        -8.5327380895614624e-01 1.8246658146381378e-01</leafValues></_>
    <_>
      <internalNodes>
        0 -1 1132 -2.5373385869897902e-04</internalNodes>
      <leafValues>
        -5.7020443677902222e-01 2.0618784427642822e-01</leafValues></_>
    <_>
      <internalNodes>
        0 -1 77832 8.6360424757003784e-04</internalNodes>
      <leafValues>
        1.7606836557388306e-01 -8.0417984724044800e-01</leafValues></_>
    <_>
      <internalNodes>
        0 -1 144032 -3.1025538919493556e-04</internalNodes>
      <leafValues>
        -8.0143338441848755e-01 1.2976387143135071e-01</leafValues></_></weakClassifiers></stage10>
</opencv_storage>
