<?xml version="1.0"?>
<opencv_storage>
<stage5>
  <maxWeakCount>5</maxWeakCount>
  <stageThreshold>-1.3036814928054810e+00</stageThreshold>
  <weakClassifiers>
    <_>
      <internalNodes>
        0 -1 38914 -1.2584057450294495e-01</internalNodes>
      <leafValues>
        -2.5773194432258606e-01 -8.5260772705078125e-01</leafValues></_>
    <_>
      <internalNodes>
        0 -1 59945 3.8253422826528549e-02</internalNodes>
      <leafValues>
        -8.5434037446975708e-01 1.2175013870000839e-01</leafValues></_>
    <_>
      <internalNodes>
        0 -1 162332 4.2765779653564095e-04</internalNodes>
      <leafValues>
        1.4518314599990845e-01 -9.2650532722473145e-01</leafValues></_>
    <_>
      <internalNodes>
        0 -1 159716 -1.6487242828588933e-04</internalNodes>
      <leafValues>
        -7.9505270719528198e-01 1.8780121207237244e-01</leafValues></_>
    <_>
      <internalNodes>
        0 -1 37982 1.0314796236343682e-04</internalNodes>
      <leafValues>
        2.0368324220180511e-01 -9.0580832958221436e-01</leafValues></_></weakClassifiers></stage5>
</opencv_storage>
