<?xml version="1.0"?>
<opencv_storage>
<stage9>
  <maxWeakCount>10</maxWeakCount>
  <stageThreshold>-1.8306969404220581e+00</stageThreshold>
  <weakClassifiers>
    <_>
      <internalNodes>
        0 -1 30548 5.7552151381969452e-02</internalNodes>
      <leafValues>
        -7.5066310167312622e-01 5.2380955219268799e-01</leafValues></_>
    <_>
      <internalNodes>
        0 -1 8836 -6.2057203613221645e-03</internalNodes>
      <leafValues>
        5.4996120929718018e-01 -3.9269036054611206e-01</leafValues></_>
    <_>
      <internalNodes>
        0 -1 123714 4.0264636278152466e-02</internalNodes>
      <leafValues>
        -6.4390718936920166e-01 2.8787672519683838e-01</leafValues></_>
    <_>
      <internalNodes>
        0 -1 12539 8.3020608872175217e-04</internalNodes>
      <leafValues>
        1.6400340199470520e-01 -7.5891172885894775e-01</leafValues></_>
    <_>
      <internalNodes>
        0 -1 12783 6.0222085565328598e-02</internalNodes>
      <leafValues>
        -5.1332062482833862e-01 3.2513916492462158e-01</leafValues></_>
    <_>
      <internalNodes>
        0 -1 112516 4.9080001190304756e-04</internalNodes>
      <leafValues>
        1.6361545026302338e-01 -7.8508490324020386e-01</leafValues></_>
    <_>
      <internalNodes>
        0 -1 157595 -6.5077689941972494e-04</internalNodes>
      <leafValues>
        -9.8884391784667969e-01 1.0453863441944122e-01</leafValues></_>
    <_>
      <internalNodes>
        0 -1 157594 1.5711842570453882e-04</internalNodes>
      <leafValues>
        2.3683637380599976e-01 -6.0242629051208496e-01</leafValues></_>
    <_>
      <internalNodes>
        0 -1 159398 1.1519942432641983e-02</internalNodes>
      <leafValues>
        -2.6550981402397156e-01 6.2556296586990356e-01</leafValues></_>
    <_>
      <internalNodes>
        0 -1 4788 2.5631743669509888e-01</internalNodes>
      <leafValues>
        1.7664086818695068e-01 -8.5600364208221436e-01</leafValues></_></weakClassifiers></stage9>
</opencv_storage>
